function [y1] = myNeuralNetworkFunction(x1)
%MYNEURALNETWORKFUNCTION neural network simulation function.
%
% Generated by Neural Network Toolbox function genFunction, 10-Apr-2017 10:12:14.
%
% [y1] = myNeuralNetworkFunction(x1) takes these arguments:
%   x = Qx384 matrix, input #1
% and returns:
%   y = Qx1 matrix, output #1
% where Q is the number of samples.

%#ok<*RPMT0>

% ===== NEURAL NETWORK CONSTANTS =====

% Input 1
x1_step1.keep = [1 2 3 4 5 6 7 8 9 10 11 12 13 14 15 16 17 18 19 20 21 22 23 24 25 26 27 28 29 30 31 32 33 34 35 36 37 38 39 40 41 42 43 44 45 46 47 48 49 50 51 52 53 54 55 56 57 58 59 61 62 63 64 65 66 67 68 69 71 72 73 74 75 76 77 78 79 80 81 82 83 84 85 86 87 88 89 90 91 92 93 94 95 96 97 98 99 100 101 102 103 104 105 106 107 108 109 110 111 112 113 114 115 116 117 118 119 120 121 122 123 124 125 126 127 128 129 130 131 132 133 134 135 136 137 138 139 140 141 142 143 144 145 146 147 148 149 150 151 152 153 154 155 156 157 158 159 160 161 162 163 164 165 166 167 168 169 170 171 172 173 174 175 176 177 178 179 181 182 183 184 185 186 187 188 189 191 192 193 194 195 196 197 198 199 200 201 202 203 204 205 206 207 208 209 210 211 212 213 214 215 216 217 218 219 220 221 222 223 224 225 226 227 228 229 230 231 232 233 234 235 236 237 238 239 240 241 242 243 244 245 246 247 248 249 250 251 252 253 254 255 256 257 258 259 260 261 262 263 264 265 266 267 268 269 270 271 272 273 274 275 276 277 278 279 281 282 283 284 285 286 287 288 289 290 291 292 293 294 295 296 297 298 299 300 301 302 303 304 305 306 307 308 309 310 311 312 313 314 315 316 317 318 319 320 321 322 323 324 325 326 327 328 329 330 331 332 333 334 335 336 337 338 339 340 341 342 343 344 345 346 347 348 349 350 351 353 354 355 356 357 358 359 360 361 362 363 364 365 366 367 368 369 370 371 372 373 374 375 376 377 378 379 380 381 382 383 384];
x1_step2.xoffset = [0;0;0;0;0;-0.25;-0.25;-0.25;-0.25;-0.25;0;0;0;0;0;0;-0.25;-0.25;-0.25;-0.25;0;0;0;0;0;0;-0.25;-0.25;-0.25;-0.25;0;0;0;0;-0.25;-0.25;-0.25;-0.25;-0.25;-0.25;0;0;0;-0.25;-0.25;-0.25;-0.25;-0.25;-0.25;-0.25;0;0;0;-0.25;-0.25;-0.25;-0.25;-0.25;-0.25;0;0;0;-0.25;-0.25;-0.25;-0.25;-0.25;-0.25;0;0;0;-0.25;-0.25;-0.25;-0.25;-0.25;-0.25;-0.25;0;0;0;0;-0.25;-0.25;-0.25;-0.25;-0.25;-0.25;0;0;0;0;0;0;-0.25;-0.25;-0.25;-0.25;0;0;0;0;0;0;-0.25;-0.25;-0.25;-0.25;0;0;0;0;0;-0.25;-0.25;-0.25;-0.25;-0.25;0;0;0;0;0;-0.25;-0.25;-0.25;-0.25;-0.25;0;0;0;0;0;0;-0.25;-0.25;-0.25;-0.25;0;0;0;0;0;0;-0.25;-0.25;-0.25;-0.25;0;0;0;0;-0.25;-0.25;-0.25;-0.25;-0.25;-0.25;0;0;0;-0.25;-0.25;-0.25;-0.25;-0.25;-0.25;-0.25;0;0;0;-0.25;-0.25;-0.25;-0.25;-0.25;-0.25;0;0;0;-0.25;-0.25;-0.25;-0.25;-0.25;-0.25;0;0;0;-0.25;-0.25;-0.25;-0.25;-0.25;-0.25;-0.25;0;0;0;0;-0.25;-0.25;-0.25;-0.25;-0.25;-0.25;0;0;0;0;0;0;-0.25;-0.25;-0.25;-0.25;0;0;0;0;0;0;-0.25;-0.25;-0.25;-0.25;0;0;0;0;0;-0.25;-0.25;-0.25;-0.25;-0.25;0;0;0;0;0;-0.25;-0.25;-0.25;0;0;0;0;0;0;-0.25;-0.25;0;0;0;0;-0.25;-0.25;-0.25;-0.25;0;0;0;-0.25;-0.25;-0.25;-0.25;-0.25;0;0;0;-0.25;-0.25;-0.25;-0.25;0;0;0;-0.25;-0.25;-0.25;-0.25;-0.25;0;0;0;0;-0.25;-0.25;-0.25;-0.25;0;0;0;0;0;0;-0.25;-0.25;0;0;0;0;0;-0.25;-0.25;-0.25;0;0;0;0;0;-0.25;-0.25;-0.25;0;0;0;0;0;0;-0.25;-0.25;0;0;0;0;-0.25;-0.25;-0.25;-0.25;0;0;0;-0.25;-0.25;-0.25;-0.25;-0.25;0;0;0;-0.25;-0.25;-0.25;-0.25;0;0;0;-0.25;-0.25;-0.25;-0.25;-0.25;0;0;0;0;-0.25;-0.25;-0.25;-0.25;0;0;0;0;0;0;-0.25;-0.25;0;0;0;0;0;-0.25;-0.25;-0.25];
x1_step2.gain = [2.00325127682228;2;2;2;2.0041264964562;1.60453377062227;1.60085293444347;1.6;1.6;1.6;2;2;2;2;2.00961601262039;2.01409260596393;1.60895350446163;1.6080298578984;1.60984452121614;1.6046251715946;2;2;2;2.00124677674191;2.00159927782298;2.01050893017804;1.60825743698445;1.61244679933341;1.60774935187604;1.6;2;2;2;2;1.6;1.60366019402685;1.60910754872579;1.86109875548326;8;8;2;2;2;1.6;1.6;1.6;1.60237150983456;1.68284299495568;8;8;2;2;2;1.6;1.6;1.60020098524375;1.60165290579878;1.61723716055203;2.07590332933376;2;2;2;1.6;1.6;1.6;1.60041610818813;1.61559501556626;8;2;2;2;1.6;1.6;1.6;1.60146822606966;1.64458807180272;8;8;2;2;2;2;1.6;1.6;1.60123487233354;1.62051310306382;8;8;2;2;2;2.00009000405018;2.00179160348512;2.00886915732961;1.6075955675375;1.61696650615579;1.83768972997906;4.90240536519243;2;2;2;2;2.00164935907188;2.01343565613338;1.60820441564686;1.60464319555065;1.60409107387481;1.61266912867487;2;2.00081433143289;2;2;2;1.60605160243799;1.60553846549056;1.60013953216721;1.6;1.6;2;2;2.0005821694113;2.00244699022205;2.00632997105869;1.60575889369635;1.60271949443816;1.6;1.6;1.6;2;2;2.00034405917818;2.00467289251245;2.00479748037053;2.00872388784491;1.61004409910787;1.60880207792876;1.60716151169612;1.6;2;2;2.00093243451448;2.00730659600947;2.00634405991746;2.00290822273942;1.61136982548865;1.61450601363127;1.62951109778533;1.6;2;2;2;2.00152315912409;1.60344805469682;1.60577565387185;1.60614833582956;1.6;1.6;1.6;2;2;2.0046106043901;1.6;1.60091828672927;1.60259749001181;1.60040330163201;1.66822089246481;8;8;2;2;2;1.60339149368745;1.60101055786412;1.6;1.6;1.61536926937656;8;2;2;2;1.60206217443093;1.60330151848687;1.6;1.60003328069224;1.61787165747716;8;2;2;2.00163733934358;1.6;1.60425062244924;1.60065434749726;1.60309975368372;1.6536442184464;1.88867578330467;8;2;2;2.00099249227617;2;1.6;1.60311388841686;1.60780492824367;1.6;1.6;1.67664690738286;2;2;2;2.00118870609142;2.00193587198821;2.00645677791132;1.60080936921708;1.61984373367501;1.62072715544556;1.6;2;2;2;2.01795169830815;2.01351065650515;2.01299792761863;1.60099133383391;1.60070046652415;1.60232144330706;1.62371401849735;2;2;2.00015001125084;2.00101051030771;2.02156606680063;1.6;1.6;1.6;1.6;1.6;2;2;2;2;2;1.6002086672102;1.63681390898987;2.04892421234231;2;2;2;2;2;2.00029404322435;2.17326106515871;2.75064949711251;2;2;2;2;1.60004608132714;1.60206345773356;2.22747163036445;1.88074567804643;2;2;2;1.6;1.6000601622621;1.60155799561814;1.83959131639315;8;2;2;2;1.6;1.60021506890526;1.60015873574659;1.609569858551;2;2;2;1.6;1.60028933231128;1.60101696597679;1.85456157237148;8;2;2;2;2;1.60001664017306;1.60267454327782;2.14174955237434;1.82848951224128;2;2;2;2;2;2.00133689304455;1.71519231593842;1.61222453128602;2;2;2;2;2;1.6001062470548;1.61874244755477;2.17278886141518;2;2;2;2;2;1.60001664017306;1.60279912839783;1.6521101990545;2;2;2;2;2;2.00014801095281;1.62440638099315;1.63382808370755;2;2;2;2;1.60001152008294;1.60282481846005;1.60991838518746;2.61343961321094;2;2;2.000002000002;1.6000064000256;1.60083883955193;1.60054546589478;2.05374022034579;8;2;2;2.00100650627266;1.60161442734276;1.61489579884858;1.64993222903369;1.62313025539143;2;2;2;1.6;1.60205319137006;1.8348910028872;1.67217509010934;8;2;2;2;2;1.60000512001638;1.60382994591084;1.60247422019598;8;2;2;2;2;2;2.00067022452522;1.60223800604685;1.65114725839381;2;2;2;2;2;1.60020482621776;1.60567380897138;1.75683320274207];
x1_step2.ymin = -1;

% Layer 1
b1 = [0.0025779524354897455;-0.13110259093761747;-0.064983616505450578;-0.06273811457899453;-0.32666203771681418;-0.03513287921981869;0.023527909070648115;-0.058158352641292335;0.14237394707440867;-0.060990471576277037];
IW1_1 = [-0.074975632782221371 0.03459303836102659 -0.056825434289323781 0.079390357895078284 -0.027076539845514894 0.056267833849032695 -0.016008077252519272 0.18594956311655284 -0.17379043889274615 0.078626967626247379 0.059105126676466641 -0.051299225579638619 -0.035087205690738393 0.040071657334813361 0.012644002204936017 -0.038181245433328286 0.034678685553021275 0.10959291591784719 -0.096971139306445464 0.066313821967384029 0.070714582269327017 -0.0090229371803856977 -0.030122755992406988 0.014579236384576571 -0.031166098454640075 -0.0074950577208223023 0.050925073549886263 0.03004187262981773 0.23527781764746628 -0.10580394806361526 -0.070152608220077295 0.099786091759192244 -0.067953815810023036 -0.0025380992230427659 -0.049701472433140693 0.091303735724808877 0.10191600605958263 0.045820809926735595 -0.017943310291501639 0.029062575045849828 0.10425644074903505 -0.017765501625711354 -0.033717406215119226 -0.016541818155953836 -0.069925639209169749 -0.0110882633161072 -0.14947962763865894 -0.056274625432478208 0.30043036539675805 0.026746665742663513 -0.046942559461086428 -0.034701265780373532 0.0082133294655257899 -0.011813676543811361 -0.0070492800911897352 -0.022767393247198349 0.018062879987571199 0.0011524026008415946 0.037870937355696153 -0.13096258448587461 0.019032951294138456 -0.053798213572491316 0.055997317809054148 0.019145112898931407 -0.070089747992007886 0.039432120815492716 0.19712486297851031 -0.059735598458975525 -0.067603398712240165 0.0093010498339677911 0.030192552292807297 -0.005488730371174754 0.021347488784913864 -0.027656594046502989 -0.095728176089436276 -0.046996080417305623 0.30043036539675799 0.026746665742663652 -0.0041959984145707964 0.0086356090464546186 0.045887600269339926 0.12302494301738208 -0.017423701492988795 0.078132440546625798 0.025981767065140951 0.071319311526889612 0.00099397302018385762 0.012186580233552371 0.045246384262873925 -0.002019799697666305 0.017042373855663678 -0.017585308566001791 0.049144333026690828 -0.022305900609885052 0.070331064134575266 0.054310293861334562 -0.21612588521233905 0.027816219952529451 -0.10608289910939463 -0.013805090795369903 -0.038815648305192213 -0.0040218355100657679 0.0039193085215622316 -0.03077633960869584 0.029717713975028967 -0.25622133080945803 -0.049955151198691303 0.016643249963688229 0.11756504680208434 -0.054696159354484755 0.068047233319848174 0.056377414935727239 -0.0068154445188569968 0.036483897141712823 0.058159094722790142 -0.033808740096903787 -0.11443841427937575 0.019190320789706977 0.015563192943662622 0.019593277176124656 0.065819194657849966 0.020758577979753633 -0.009550640116258325 -0.054868597696173339 -0.10536414086212505 -0.12473083120807399 0.12608199226351827 -0.050563906684194811 -0.033380781473413015 -0.045624362813619986 0.14860186403269604 0.020497651263795227 0.019815344368233033 0.01431234444770939 0.089520061775542573 -0.053180811389046914 -0.0097419503718102901 0.016238231170725963 -0.014888860109039335 0.013127902746360042 0.086085636221930384 -0.0026478440861686233 0.08253180859815476 -0.024291741675962569 0.014992984137736183 0.075335932115977236 -0.019988341806642863 0.020371357272788534 -0.018318168744114523 0.071758037921245535 -0.0083813329025185668 0.10592473008143737 -0.02739459129213485 0.041320056553177796 0.0060008052238357448 0.039157934665803917 -0.019202293223255083 -0.012855802420137981 -0.049873738704051471 -0.02975476535384692 0.0093991313201576988 0.011421730840018284 -0.011591310626213779 -0.054061544041675437 0.019560049938279148 0.016853293718660317 0.24868283974325575 -0.0086028770805201653 -0.021572099725199918 0.05084646216260006 0.0082947484978482585 -0.044423458377037948 -0.05337171359391208 0.078581804411398226 0.11686830663815101 -0.044325869706975031 -0.060609106986603239 0.054551265908443676 -0.018616824276093204 0.0068258535865145954 -0.0032027780192627553 0.027377736208657417 -0.05978582066868629 -0.16780566720318979 -0.047846130077514447 -0.060609106986603198 -0.049799810448343765 0.031644263704345491 -0.016145990834142292 -0.02553627130911551 0.034029400193984309 -0.016810105448190688 0.027915445335070448 -0.021676556645052018 0.027844778252681064 -0.0086028770805202 0.020984426496171105 -0.069273159561285227 -0.015551576875707572 -0.0052437727932095196 -0.0273929829918396 0.024202907160371136 -0.016742513671799294 -0.0047276033420493727 0.013492644392494283 -0.010395638711414313 -0.023409130057683355 0.0053047617829121638 0.055798370379738935 0.095772026701107515 -0.042808134827128863 0.0096258406497306496 0.054437152021642767 -0.14592722866589605 0.079328628096573803 -0.064505750056012612 0.029060331712364385 -0.078750646000148403 -0.020846523902958665 -0.083246477038978098 -0.013684934790345465 -0.076332728981468867 -0.059904603160555507 -0.11787448328276762 0.083177602907454989 0.020169517630841859 0.029951630230841991 -0.014778842762304923 -0.19291996353585994 -0.12793539052221062 -0.046115146550350775 0.028681094848904035 0.076200314479779818 0.056810156114860323 0.07569190271447522 -0.23378018312624416 -0.028383942554782389 0.053628039874513901 -0.026867722001093556 0.022127148788646963 -0.031172538993414628 0.096931052879129814 0.026655032691576659 -0.19738870956640714 0.038252029183483929 0.065733834882990755 0.01785711281892062 0.031969464772989571 0.010902971681264553 -0.07477777309307293 0.26083142995692132 0.089763836812100067 -0.0687225845716571 -0.0071193408266192297 0.0037431503039025743 0.026502057358178972 0.036691812787771054 0.0059993920298031652 0.068590796255285566 -0.039030032995960751 -0.049330496307882311 0.010555285678503761 -0.019072739254198591 -0.038792926153611997 0.014048819816959572 0.010003884353221571 -0.11517642404060859 -0.0049163248099179987 0.0061670600425443763 -0.040654153284808141 -0.05576701703266454 0.0043198040119756765 -0.06797882658402063 0.062152805382689358 0.018537281261250215 0.049914070044810632 -0.026081118599945771 -0.025268189044943726 0.027617996160410184 0.00073640177567399631 -0.0094071189749112497 -0.16803154370272033 -0.0049163248099181453 0.042241787905941949 0.013137119028632674 0.020772161922565747 -0.069203430861556683 -0.045326325242505065 0.10511786139921907 0.069349812960538729 -0.0092576784219442869 -0.021108756276332706 -0.023705591944192726 0.085138260122424758 0.053279779584560469 0.021150995273752207 -0.0023528896201057176 0.13808606266022505 0.12255320912971621 0.023337766506947969 -0.004516832999965038 0.078592710089062712 -0.013227180429470541 0.03306126551420073 -0.11627334547769849 0.047151202518736793 0.0043219574424135897 -0.002567170110851977 -0.051203905644531762 0.050611277948207814 0.011078068727089451 -0.033964141240146142 0.096790718381494556 0.095061926200653693 0.013820945143336214 0.016300304608543856 0.022716216790311654 0.11648117445707218 -0.0040484723587794506 0.014888231764650565 0.0082238489215777592 -0.023434136832916404 -0.045518448979690512 0.012587912012752273 0.049731281961786299 0.063879181814222946 0.011302912687250916 0.059164738771242772 -0.016360402418846346 0.026536039618094448 0.034440150011169388 -0.060200506385262476 0.021181928360189457 0.057986430097089842 0.023551009442664958 0.04000337808925402 -0.032843756644066843 0.044033452792186685 -0.022357103616900954 0.028947727760455587 -0.053079050384229012 -0.049728517074519932 -0.020115448304988095 0.03234616320229336 0.01574076571207229 0.019178639203892556 -0.033742411204948253 -0.015081390877238978 -0.043828893443066279 0.061672167916389534 0.076045902483165326 0.010594998470474504 0.088700409988456158 -0.022357103616900895 0.018758326746003594 0.017531432887780966 0.1510208870608627 -0.0059071248371753522 0.031768586909823093 0.052420050299744135 0.012462745282403535 -0.033627485039074784 0.015171261556057565 -0.034705467996336448 -0.0082937640331893978 -0.058854163904750886 0.0089655375335076243 -0.024433246980592276 -0.037007712506857769 0.10210429257574508 0.0096996328588545323 0.021455393058165802 0.013760131141276355 -0.039199799686630211 0.046749910415391463 -0.083121727609248394 0.10175096514906104 -0.035692411624069019;0.12450981272630571 0.076873491998313795 -0.061952915657103341 -0.13338806280444063 -0.1045200280464849 -0.11809396851274565 -0.09362630095510116 0.065193517843054716 -0.069378479485888031 0.073325251733924096 -0.040789112180903496 0.001690565800397381 0.10895465880357066 -0.051201891990135501 -0.048709905661274477 0.082597250433647282 0.011865996912144018 -0.13327642152347083 0.31225147949088655 -0.19140415909084876 -0.061143961420422124 0.038269882704975479 0.077141014428718208 -0.016987820717030783 -0.00058372039376396114 -0.0005170697213001458 -0.0042892265878258585 -0.12876977876783846 -0.32376885435508251 -0.036131308029074292 0.05343811997723194 0.055021456905401313 0.0088367800700746811 0.024204548175094612 0.11725551223593167 -0.098458004490940026 0.077722361431354581 0.061374093858542846 0.074113148561071041 -0.097125919194788857 -0.018943355949107125 0.025228229169931674 0.10212593406014352 -0.085967710044253937 0.10305639223876852 0.082027503658513551 0.082038348969234787 -0.058559013593656589 -0.32060527296016522 0.085470928238792473 -0.0043303090449663103 0.042873774495894482 -0.075382488184819629 0.081663902425582441 -0.078281773100939867 -0.061435775565901331 0.0094331936132943817 -0.15742534123421589 0.1121178601160166 0.14923216504949843 -0.13390695306363487 0.098536456202883552 0.018986401008589834 0.073289674845301092 0.048353992599686806 -0.092903640782968269 -0.06295802575242021 0.089388773328868062 -0.0080135629072146074 -0.038932357658422623 -0.0060877683673139999 -0.01670941412889879 0.11575008335140624 0.11186112695400154 0.0095883191292997893 -0.067072836308009406 -0.32060527296016522 0.085470928238792473 -0.02193287810656884 0.040505069713861537 -0.062509126915376551 0.010391778127021994 0.043425935946074572 -0.08730527124099674 -0.092971085091583222 -0.095255807061635181 -0.019560063786404704 -0.13579391664383661 -0.041136913408505407 -0.039185840270359505 0.02993052825275681 0.06840630281186294 -0.015335932226830235 0.052467059414473279 0.075161243737294187 -0.33255076682000612 -0.14690089202842854 -0.11203371331833761 0.14684175907905189 0.045656652109986325 0.037270429501244637 0.067472605153851548 -0.02644960400927255 -0.0080218988231706857 -0.18474811093441856 -0.17450816314382323 0.40588495596544993 -0.1279739863965719 -0.060974257216159081 0.03628491575869331 0.054681269893348546 -0.019852555964086256 -0.0053512283656378459 -0.062253801093315672 0.071721117903095669 0.037881804102946642 0.33800737595016722 0.18753772942089383 0.084191832138701572 -0.029686033079823922 0.12995303983103024 0.080257840162530444 -0.028464240178438113 -0.036165686548241351 0.075368957847630064 0.17007150781445854 -0.0016955582127671023 0.079702444819052656 -0.013679127341770063 0.073079154109271571 -0.010271325889106541 0.14265863549708932 0.058903694667837653 -0.090189700926060934 0.13568710788868846 0.011809681385546077 -0.089630076062779132 0.077204195338624576 0.1322827711681227 -0.0041975385304762625 -0.046630760754623087 -0.016173259847667196 -0.038730180276220619 0.032122840624624657 -0.038405815341249108 -0.07354765353578023 -0.081429982984340954 -0.12045923104574266 -0.03853357679650974 0.13336192430290178 0.051273821841927775 -0.13834580828601378 0.070026288014048171 0.050714771599167444 0.061318641483241364 -0.10747064899248047 -0.10257166118833616 -0.046558393286626108 0.081302504380772855 -0.018911700065105584 0.1066570348017119 -0.019472906219089769 -0.042644367673904671 0.15409434971964284 -0.041026372966911522 0.055031090277496933 -0.3537959414518107 0.050752491031999636 0.037947471564898826 0.0538755534463215 0.072413320080512808 0.06080108201323893 0.1102028367516746 -0.031163581831014607 0.066162099128177165 0.038285435586566996 0.077323315839761833 -0.020090695851371389 -0.040807791319075207 -0.011304058638296905 -0.065149782043595575 -0.0047724420094454904 0.046735259325671838 0.14737253798388578 0.044285967211297982 0.077323315839761833 0.084637857876209338 -0.036510460277635527 -0.071539883838544954 0.0062820105260740075 0.06407118584077505 0.038633024259960312 0.086488962464891572 0.050851159665662934 0.019050161175668632 0.05075249103199965 0.0059635902771326228 0.011801087210472894 0.063876465191326059 0.068405280973564658 -0.046002603026960999 -0.082696384669684028 0.06626397158158262 -0.060700436671493267 0.052478336731961353 0.066728758459973517 0.054724406324314342 -0.0065091554408276816 -0.10418085000359446 -0.11367564066110124 -0.045574450329669502 0.05238176953203362 0.073721954859964578 0.33171946817335962 -0.12510374944188729 -0.065896413052328295 0.059140275054367482 0.065983304726470252 -0.086262308285357719 0.13771196404940145 -0.07942493922645652 0.15407818944282109 0.11856764545267602 0.14907891495602804 0.074645212108931047 -0.015307578291696123 0.065729263733619078 -0.09916556903602583 0.070998075088438695 0.058000381056052298 0.0158538516813167 -0.014650956119026287 0.061712295918741139 0.098852887876942144 0.086596646688681528 0.0771208484610751 0.073341079632080045 -0.029550323790652495 -0.0019923957249925813 -0.059764580722170654 0.060105214261195992 -0.072373978672970685 -0.14037830748367996 -0.010118585701124465 -0.02178422043439646 -0.091531904455915927 0.086644406277754757 -0.17097326814689962 -0.040116870166869573 0.075032964727991536 0.033300586623908876 0.058204659763710788 -0.011459010164926708 0.061688442280250735 0.0047091397998364438 -0.096255725459163902 -0.085115015791098841 -0.17545729531920981 -0.011110796787567439 0.061003423362519578 0.056779468039089093 0.056782859634896966 -0.022756789659500478 0.012401602600516854 -0.018658887898454903 0.051201953548556695 0.096716180516735487 -0.010861023359543861 -0.002625570608850469 0.13519449426611502 0.064069465590337979 0.013593705353531972 -0.078882597604837804 -0.030651998355302246 0.23491428038705531 -0.04025499746937352 0.014122578606220054 -0.032622604193233609 -0.059227050766216108 0.030430335863275412 -0.089853781002510735 0.11975226861964131 -0.010861023359543871 -0.003189010807917338 0.0075090540571628953 -0.0065980365090394615 -0.066174273085571236 -0.034487046093974898 -0.12981442567357432 -0.026488629497688099 0.033215906329640228 0.046486381492532571 0.01409236619693896 0.041659145515694093 -0.092344006012390012 0.016352537278247026 0.03047721324899404 -0.055962217698507823 0.011430405762525691 0.016004504227274133 0.0064768539250283893 0.068600577811767649 -0.045186614651165309 -0.18748459482233809 -0.094057758932974231 -0.11173882904291303 0.020707526251979112 -0.080511778857789262 0.037920224326144406 0.0058893662410623316 -0.081943406835398594 -0.040100077920446175 -0.00024754731787232767 -0.18541500719711693 0.033176118275811857 -0.0018868307622356504 0.13512952974718889 0.0324290860845503 -0.13852749009824258 -0.054573259121426194 0.013892537129264205 -0.100406383523787 0.038074268503162347 0.0056485453544378901 0.062721585593500884 -0.2083451023133642 -0.029730975383845146 0.095769289082521233 0.22024250528828315 -0.15569319117008268 0.054726291804569241 -0.051287436292880212 -0.021261497946656261 -0.027781406398697559 0.17840748779867263 -0.086288751015554693 0.15933876911368244 0.044161982068122843 -0.081318735825829949 0.011324660458865102 -0.02084608129119379 0.23920972338351953 -0.04228338658884756 0.043037291126551337 0.11659548757931211 0.061198559941775005 0.011161098744035081 0.0558621921241318 0.074266626679850192 -0.033768557041512888 0.059140928465183575 0.21645719925787943 0.062889576736421884 -0.081318735825829921 -0.01851052816291306 -0.16544340294005547 -0.34345639228109476 -0.0073428120203184854 -0.012956712801660136 0.050732474897749763 -0.1601218334431439 -0.1026155886731465 0.013968889976759912 -0.020380799589096762 0.098559567412000781 -0.22352982646174879 -0.045956256987179644 -0.093114153930368093 0.070605665103560061 0.12499922805393267 -0.037161123111653815 0.051369850913428064 0.059574931587044092 0.095605671749662072 0.072921360266239896 0.0167111737559777 0.096270192971930679 -0.0091677230585375264;-0.01240740879834821 0.078339322332269062 0.084464273936277368 -0.062370144740317331 -0.019777275629895379 -0.047617303962810734 -0.05043655126740515 -0.057975543470866107 -0.047602950062703313 -0.058609139623977721 0.077525044888547015 0.0084297736297043215 -0.044043462306211902 -0.0036161343264072272 -0.033217862128888026 -0.055648131952639179 -0.0020511678291231521 0.017092930772134043 -0.12499636229604061 -0.016492159991953838 -0.004124833495082734 -0.12844865788659668 0.01250725956898378 -0.068216822073237315 -0.054873546875153528 -0.009466611320307735 0.018070445374278245 -0.071569900022104491 -0.23840855835396862 0.052578283300006218 0.041385904970160974 0.091513976041791692 -0.0053723218529715434 0.062100021129485587 0.042845667599769537 -0.082575151410698683 -0.032718558043998106 -0.16950907577464971 0.029423576799240195 -0.087540279948117694 0.038760839407866093 -0.085928100333935858 0.029838165790221905 0.022766399624267634 0.088204919378671892 -0.054640415833926669 -0.063745930700513417 0.13583004752901726 -0.077100779581506962 -0.0098332546893771591 0.018419321880306726 -0.0076849973158941856 -0.010147259419635936 0.026129135858468936 0.035118430715918886 -0.080833955422097911 -0.16736253135175938 0.093902074214060743 0.12908834252431503 -0.066193008241900261 0.058663349859369704 0.017740312889254772 -0.0068373532572862591 -0.027728483050282637 0.052992935905127596 0.059615436736842574 -0.059158102429830835 -0.0080508074427509575 0.00075545011725122269 -0.076969165062160477 0.048608822468832753 -0.023092365391067977 0.018120963136474929 0.04554627102244195 -0.032896612854582605 0.011898100062732802 -0.077100779581506948 -0.0098332546893770897 -0.032437987357168706 0.0062673489994564558 0.015441388408239401 0.10456982140078337 0.084430749975884165 -0.062435502876249299 -0.034222948394564447 -0.024245732733993285 -0.0090260320389995395 0.04464504072845487 -0.00032649351054679084 0.069474625497501122 -0.00947574432647183 -0.048791140289730785 -0.072275624343173944 0.017235448686948381 -0.047449996619492382 0.034702576410923058 0.083374890137205601 -0.095174281525818291 0.03084182627861682 0.10015054343387722 0.034819627358621014 -0.02969235159157832 -0.053899775136595642 -0.018954274108026262 -0.081573491674378093 -0.15955172707313436 0.28481824235785858 -0.036097187199187288 0.14185204705959042 0.048957316317476768 -0.15996031588911444 -0.11572833478904275 -0.076810801486329752 -0.087794995830849737 -0.10435305235630661 0.027285544107865826 0.134655702899519 -0.11752591450797915 -0.0015914185839905446 -0.15119080366064094 -0.094731202776988002 -0.1133232377379372 -0.094028927041024488 -0.043312664044441736 0.082508132547859755 -0.058875231433142002 0.15111562264788245 0.23239843659886969 -0.018617964295410676 -0.0058146988636450505 -0.044653992354673738 0.050503697345066476 -0.036503409218735773 -0.025291476662604909 0.061455290026991571 0.054109206095576484 0.061883592047414858 0.12322004845085366 0.0097503983010339291 -0.0175838630382548 -0.0018561997418897946 -0.049826613303682203 -0.011543253243655622 0.0042812674731911061 -0.007520888058135047 0.14542329206494159 -0.090019110162616364 -0.05046734443245339 -0.10196511401170218 0.029237566405607467 0.020629793327579759 -0.056348386421436171 -0.02952171524909647 -0.044385366566176171 -0.051865904478951036 0.057649585429977418 0.019511210003249724 0.14049824902631294 -0.06027042968074791 -0.044164675341561772 -0.013094651665763565 -0.0090471557378318489 0.019682109274955076 -0.0040735266634564426 -0.042888903863824206 0.15275688293621276 -0.097503359003155918 -0.016278542964837609 0.022504773209322072 0.00035256584179468186 -0.027234636732312734 -0.082348228088002157 0.004125135663463014 -0.048660189148665406 -0.072892986086052144 0.18381970373283724 0.037965509344390955 0.021262344763476014 -0.060311559430581786 -0.054061004284890628 -0.15412305846231164 -0.088310964483318627 0.00093399490744489738 -0.12548301106716311 0.090193618076939167 0.037965509344390982 -0.049108623169917272 -0.014804700811422194 0.0697877434726282 -0.01086796510427979 -0.027717549647933926 -0.010361641464808141 -0.11856455473601525 0.058741794564543294 0.070042024047695869 -0.016278542964837453 0.088540868428997999 -0.014873489193068421 0.027154335746378388 -0.0075614581539684526 -0.046767598680822704 0.034149508908550841 0.05980572809073828 -0.040801824441983221 -0.011290013320273523 0.067871744625745245 0.029413079071593257 0.059802420698967275 -0.055829077085735875 0.045678706458889842 0.046418462315291918 -0.029553214037063541 0.059378973756382895 0.22296863782694248 0.11812527931430476 -0.015636516141336727 0.05513175264886773 0.084580933058956018 -0.091571974013614166 -0.09085207261575072 0.035026080019434989 -0.0035577075104585598 0.052201984533542252 -0.077073559844724776 0.24729747829622889 -0.032377169181290147 0.022921739432931066 0.012935438619690716 -0.086179050427174692 0.0097182697282064464 -0.0032646600683490404 -0.016728634076622135 0.05749136189818696 0.033853788101291964 -0.21955434194064019 -0.031905561636472526 -0.011433336355205045 -0.022993694296886445 0.058563965292708832 -0.018605254693556707 -0.02920503142208724 -0.045461121201319343 0.074018578524862363 0.0070332397549332688 0.015276422530043231 0.022460948126308319 0.010123833392496168 -0.043154516896082983 -0.032593035864192731 -0.019019926602130206 0.052524987585542179 0.10841807491453682 -0.018372001951689088 0.046835060726133804 0.051562653279072147 -0.026581339392403928 0.025884265744564938 -0.0049541280921695111 0.096133396883864602 0.057859757334949795 0.037972497353029606 -0.042828239189254678 0.026533155809825428 -0.0092711274757980109 0.014421275786531098 0.031419591610509515 -0.029583289091332222 0.0084318503733515661 -0.013199335942131013 -0.011590675578492709 -0.017411195248486909 -0.058750637534652934 0.11665336311426217 -0.046553566601811786 0.095877138010978163 0.030108341783744334 0.013556541831409098 -0.058506745274947251 -0.067662354854161583 -0.017596869721800152 -0.0187981132072324 -0.060962844364607131 0.0084318503733516927 0.038480165269430114 0.013376605577357417 0.011800503507502882 -0.066535642348141771 -0.082905816988065734 -0.079760404760036346 0.10507404142752806 0.077574482948066653 0.01521963517958802 -0.0033086631383816524 -0.060012093325208876 0.0025417339182736364 -0.084322147527313429 -0.10486842295073213 0.088274075265973306 0.091765354945552297 0.011022908374966212 0.026147163427584136 0.104693731620022 0.010088803135805952 -0.044077278987759066 -0.012103169332177626 0.042448255266925916 -0.10461130715766163 0.030591997094312377 -0.0079676544486088248 0.086356391790324311 0.063916033811333622 0.0097148093242393468 -0.086539907518588199 -0.089314561283292057 0.027876241307145312 0.023712398509785203 -0.022432612399679901 0.13995204266022754 0.021947436581168003 0.043797666439673547 -0.044719661625260816 -0.033832810256263675 0.049616650203494213 -0.003675584370331456 0.0082977345281340393 -0.028075086258650492 0.10095272146854994 0.078759422779787425 0.086975884565118095 -0.034664632563867676 0.07222719784228647 0.031466304094610605 -0.048731737252922729 0.018516741064352402 -0.13148000039912824 -0.044162102710603723 0.12171060963253683 0.048370855997185339 -0.037353761088673589 -0.025776723843913722 0.04085798667849861 -0.035758221078468391 0.0014391394064054992 0.0051454754014011684 -0.064071576672301123 0.21794994516081245 0.014076206831118227 -0.017002531560232445 0.017538881055347427 -0.016154021070394691 -0.087791920868807966 0.11583375540074843 0.04090159957197749 -0.037353761088673533 0.023281002364796598 0.044618162996939464 0.026308247663149216 -0.0045413923624545672 -0.026989131796193631 -0.026392180196466681 0.026144921041692904 -0.013410252092120909 -0.013932488598761476 -0.026532745987620229 -0.021421379538217024 0.036372224463797238 -0.13776155597977555 -0.028084924901196288 -0.11362221239061707 0.073842075799089649 0.0072198006562866944 -0.0053661194805294738 0.13043693744923893 -0.018978380012410884 -0.010340090124047071 -0.057787574916351364 0.050808107208933473 0.003780720028237703;-0.040735375713474783 0.011249028821714973 -0.030353676991305388 0.037200740834323127 -0.0071898267182421011 0.051953251928313404 0.011896390386211514 0.12399270391276644 -0.072993618864137327 0.13090507497235146 0.033536942493334783 -0.053865771867797868 -0.026367954012032187 0.0080977923318426293 -0.00046206288831146059 -0.035403682036263907 0.059823740899288824 0.10439506923382998 -0.080225339373032167 -0.027620776063610082 0.042973207965276303 0.012667169556543087 -0.0075018512009242125 0.0092141342641142137 -0.050913545981171718 0.033287530156266988 0.035643326140909495 0.065504019568826247 -0.031986734349229572 -0.094254968741168677 -0.075377905228160541 0.094482409601059344 -0.055887956719985227 -0.011937071245404664 0.01301833607070008 0.027459236655266631 0.060405348837393659 0.076530893797952776 -0.027415749504209601 0.030906249311089169 0.083270084385232992 0.021400505627574579 -0.01476598846532237 -0.045154897871721139 0.02773479252268371 -0.060714396641948429 -0.11033411768730363 -0.034020531859759319 0.31404751724016555 -0.0088415019555064464 -0.012760732639366387 -0.017954237117661923 -0.0073090911811882764 -0.0074022378161718244 -0.0099710660262320085 -0.011594236576189101 0.044142636899894026 -0.090241944797496185 -0.014371400775444612 -0.08781244914961843 -0.00088451061405911131 -0.038070451555896292 0.070027953994333245 0.0482584568943107 0.0030679956725931088 -0.008126759774202014 0.14690213071025543 0.042385686438714307 -0.017866319276645389 0.0044206293571287083 0.019766927694722457 -0.002834062985680241 -1.9653066453734885e-06 0.04281750123059927 0.0021007393357938002 0.073677065849720003 0.31404751724016555 -0.008841501955506266 -0.012119722962194556 -0.0071438494976133722 0.023971608935038205 0.088572636713794076 -0.001450946692146792 0.054823095089671953 0.0005899146119208962 -0.014304737323050485 0.025346566036410167 -0.025485566433599845 0.013288471736925338 -0.016758140535715504 0.027873019377025285 -0.013599414658527362 0.014882260373415876 0.00048222865175472562 0.024853799945395057 0.047290500006888572 -0.061902956213252848 -0.066520045805551223 -0.04492397749003952 -0.013467114230578434 -0.04175593658299212 -0.011395662397096615 0.02236746979232531 -0.00027016511518476705 0.03939351822962809 -0.20640705199721765 -0.055304116938855917 -0.034714570319212879 0.11519709536105135 0.025769355960921659 0.0099871713919665039 0.039191888111241906 -0.024196356703434112 0.067287784006284962 0.043997055590910973 0.030195131487895089 0.0024083985669365133 -0.052483141467034304 -0.0057559246871087709 -0.011004416741073454 0.022570413363295985 -0.034901444330500783 -0.018240561581635208 -0.047582150213852405 -0.062303276229895545 -0.028286053158857197 0.045929104725951395 -0.036291353420183109 0.015297273729883917 -0.043145131074520726 0.1081344349330613 0.052668781318194052 0.0085065934217909457 0.0096879693330531973 0.036756338693823325 -0.035237102579788279 0.031858883812746153 0.040021791623127786 -0.0035009095837663763 -0.057092717790667262 0.069810816099170031 -0.043092366369046439 -0.0032136991366283826 -0.024100602485471273 0.054311524457320064 -0.029543167725816867 0.010235843182919696 0.015985054880829325 -0.0088298085717922435 0.096115653822972311 0.051718745638345366 0.037521460702279186 -0.054223414517734533 0.044470496831961234 0.0027164370106082044 0.0096045536090936644 -0.014939031105178162 0.030762039513152133 -0.053346241854816415 -0.029524675349907152 -0.00013250064547322481 0.016103781243327488 0.0056983685937116186 0.015992810963239668 -0.0037365047011196926 -0.12767307869024927 0.049255919892279662 -0.03411596728802032 -0.013583773064660003 0.036341283281600141 0.019256824750954506 -0.019603575132925367 -0.018752417206187467 0.021154909908134182 0.040473031831268255 -0.028408176940818274 -0.04583093593513371 0.041379196891646847 -0.025801749392617982 -0.0034501902675760283 -0.040523536879012521 0.0091228247523491152 -0.079773913266157528 -0.021228595284344943 0.080466254594962511 -0.045830935935133807 -0.02867309319826776 0.0023557872580460687 0.00091794729175628722 -0.002375299045570304 0.0090955422949414895 -0.028163590932735839 0.036094089367143263 0.12945566167165273 -0.017159555172263141 -0.034115967288020264 -0.020266292380741544 -0.045192368022799349 0.0008339165305680117 0.010880407757107982 -0.01976389216123085 0.019426203395402457 -0.0018024915784442587 -0.044215120435438501 -0.023284235338381153 -0.0030769401650776944 -0.014592738169027302 0.036166126036027355 0.027722511248954401 0.080096735301956906 -0.036097077075801953 0.020874229923487787 -0.008962967190159989 -0.05850248463484975 0.080071238062305761 -0.025397077425620383 0.0041355663999850393 -0.025333850341852419 -0.02112284695670592 -0.0056993929557027315 -0.016849740879669627 -0.028927508534263808 -0.020775367945319513 -0.028301165703890505 0.026923819279712997 0.026496764743292343 0.070941627012854822 -0.059448830877730806 -0.075531259031113449 -0.097474982288923678 -0.0069973184568899406 0.0013771601799162073 0.083664051261091624 0.026485939153831139 0.035045043882006785 -0.19700414869751362 -0.029329677816545354 0.039838288962839509 -0.024443449022419246 0.0095362054663683544 -0.040936092265708372 0.066846046083328031 -0.10069010441680398 -0.12543373911605649 0.023233835140179598 0.018390982356328755 -0.001687295517128169 0.038348668426865115 0.012797265557367777 -0.04050156305748092 0.057438803833276569 0.01278226750396814 -0.021582864655893888 0.015577629201395674 -0.0050377819611295465 0.018864431386683991 0.014694724020348581 -0.021067767031477672 -0.0026748156352682509 0.032135827972538306 -0.018219352845364366 -0.0028561672704736818 -0.013614064494486067 -0.028945798693678228 -0.010552726183899347 0.070541966322843291 -0.051674739689359817 -0.004106508339360636 0.011951727089669436 -0.017648960304613822 -0.032701134668811048 -0.0091889193742005458 -0.067451789479541349 0.053522500425198731 0.070513441099433707 0.030233115536673114 0.0021450900397827935 -0.0072751563309566142 0.020629589282524518 -0.010219601622628716 -0.063801870097608182 -0.12059833839479993 -0.004106508339360446 0.039248533373825528 -0.0050030516622062964 0.027400951167061385 -0.054535369109960569 -0.042175808934215846 0.0924887689845139 0.062055204995446638 0.007953577845206292 -0.0050453871445599379 -0.011393132819101445 0.050570309779939954 0.023238517866782278 0.0068559462027396583 0.0016468322704088593 0.0048098671368579224 0.11784596436466442 0.011819534998817079 0.0092888153024242512 0.049909790008782387 -0.0055607276820819791 -0.015846294338929333 -0.11311515929950466 0.0033065277219500064 -0.01708225419514775 -0.017478754253637329 -0.014317528751312564 0.036606030209051017 -0.0088738517051236056 -0.0065231460562971801 0.048261406023564657 0.12642887918367379 0.044964792390832273 -0.00055221629853687774 0.054992699134475152 0.079439979302681721 0.02308892553126056 0.027047024304146121 0.015274943431918545 -0.05891413375866305 -0.09493152001889002 0.017751895259705879 0.02196150635653623 0.085448122050425873 0.03382314190936999 0.055503906462803586 -0.0055997305499058056 0.026710570235361775 -0.030101596766306221 -0.018450183708547199 0.0030929996290078605 0.070046956053858481 0.011648527913574245 0.078604443101569998 -0.028740285421084144 0.012909243926195205 -0.0064256449834080714 0.022336040021577557 -0.026715860311393738 0.037846804738551426 -0.082955818625940411 0.024208394943246638 0.036496196420952948 -0.055708172161453323 -0.056273652340061195 0.023200166626910736 -0.020373300707574774 0.017810167918139115 0.052162960680520204 -0.01745174775607964 0.05407014619963172 -0.0064256449834081322 0.028148685398294401 0.0010333462770128205 0.15469729640770813 -0.0058894711667847538 0.0021878530451117555 0.014872099753469153 -0.00015493973614621472 -0.051827294772927517 0.0097035113699644356 -0.015787035479201787 0.0075057582712288445 -0.0080888232993537937 -0.00047251742849526741 0.0095011718935658716 -0.01580680242787974 0.13393343712713049 0.019025940950001159 0.032397060010676403 0.038762993460455267 -0.023113151409968651 0.025930917862365982 -0.085211529118550372 0.06652032696805707 -0.12839655831040536;-0.030195500988468023 0.030177330405670298 0.086820543681541892 -0.042235197056805784 -0.0065344292801955235 -0.025280229653271594 -0.020159428987990963 -0.077161176074832805 0.026730984836631201 -0.13239338557049535 0.055480341351398704 0.0095976044749513587 -0.06069831185353592 -0.010382067183005187 -0.011207800712198405 -0.044715898249910728 -0.0028146154559669811 0.03773697034827922 -0.17588370819466123 0.059834639305741955 -0.010398852315903115 -0.091021424838808984 0.0011909120228185946 -0.062178367358945413 -0.063990155788170022 0.0042175907441544839 0.030437150261110411 -0.032120026591006587 -0.064302194884857222 0.015001789509606704 0.027834094888169778 0.05541014939025328 0.0072317151360105089 0.03874206103502547 0.05469827107465626 -0.050851066557383792 -0.047879505024988465 -0.11620336929107428 0.020669559847713168 -0.079461432176777189 0.02194545719896036 -0.055986413545929883 0.020043660127122297 0.026488182832994006 0.067198469289740492 -0.046646094691475223 -0.062518386047441823 0.12491158613553832 -0.027914446064468801 0.0018018455221904524 0.017269330393168733 -0.025443698936734302 -0.0049318672918983167 0.016984890980883207 0.031901131290823614 -0.051262995124301651 -0.16967422578653579 0.076269046359980275 0.16715423972191312 -0.077555777614531529 0.072478560703276823 0.017420524225074931 -0.024890333913656359 -0.023373692733313793 0.041949983230667343 0.04293151497185984 -0.027982325802410762 -0.027676479172683836 0.0024791576737491958 -0.061815369801748649 0.033835488070800161 -0.035655627583289759 -0.0046781985949849976 0.04063033765681013 -0.044886760361619267 -0.014838424428158858 -0.027914446064468842 0.0018018455221904687 -0.029777203110806779 0.0037357195768811763 0.0077410813687160329 0.068424686961213149 0.07601888076306175 -0.069148036827058959 -0.0043352384731632299 -0.036374561929642286 0.001197396201476752 0.058522771346354474 0.02060896280728932 0.06926855779146221 -0.0099705494796439014 -0.044882178476505635 -0.069723389943117151 0.031178783486543397 -0.046592626923487271 0.078165137950485214 0.086952900321821472 -0.055248656141409898 0.00087502073991822826 0.072865580060438931 0.017101327532374318 -0.040383588468558267 -0.044398667957965973 -0.011446657157990332 -0.0302638804433823 -0.037528749802089964 0.17825161883780943 -0.028242555076417045 0.10836612920202844 0.038895725521542197 -0.15078899460354347 -0.086207730088697726 -0.055847419394756133 -0.083437862211194314 -0.10698787457064751 0.017021259162730739 0.039477668306720559 -0.15327541157225885 -0.011618688912386392 -0.10966110979135171 -0.1152055926730928 -0.096410168814471148 -0.074711708134491892 -0.019593206190223915 0.035598190365647771 -0.073536709003131639 0.088803948681517045 0.22890652567605674 -0.012163278326162794 -0.011264956249330976 -0.048821118523475711 0.015220110257369513 -0.028731905583726243 -0.01163086342958914 0.035683160603626328 0.047732208956591686 0.025385415704424076 0.088868182687919642 -0.0089346713853469071 0.00033806049962556905 -0.015108403923924268 -0.034474186208181698 -0.017551864295799972 0.011712987363958463 -0.020341580643480697 0.10630981896349678 -0.050187031474692993 -0.038004894020086701 -0.078313987742586189 0.0014920625277585178 -0.001381063010674583 -0.054060382682325797 -0.032941652198423772 -0.053845354533816496 -0.077564526785296781 0.078920119824758966 0.02781238592068409 0.099819991415283624 -0.060280187091930865 -0.054867906214493244 -0.031156207661366838 0.0063943149483487579 0.023049795896008661 -0.0033656963467310471 -0.057716118462675041 0.10630548694433027 -0.083207750360811808 -0.015635537299028557 0.017056109727556217 -0.016205616619501807 -0.050862247134474764 -0.098772207841208673 0.021029536030782971 -0.036825654834704825 -0.12188992254877967 0.035405938391936211 0.023918545158016054 0.017252908965339788 -0.03705711868063339 -0.061043542327515625 -0.12815059521479361 -0.096505464167474964 0.0057091263939903032 -0.098560658199645365 -0.050058305769168789 0.023918545158016065 -0.052609767325696451 -0.022035714921764999 0.070935705960573137 -0.024079251277478089 -0.022293794188419546 -0.022133747911589341 -0.058806499022767883 0.072591694305466886 0.13953778403687819 -0.015635537299028588 0.060323369075703466 0.00476116502263249 0.016582261941920338 0.0058962997776973872 -0.069540373272750047 0.044172726580599606 0.042886839930714432 -0.061965511203205099 -0.036798723206351962 0.11541701718477858 0.017947988838798681 0.037485251198892636 -0.040339466549675448 0.035664265572582191 0.058342158305721883 -0.044175228048865013 0.036091286648559255 0.11791416762602457 0.084481352036982579 -0.012391722147172284 0.032629454808631601 0.060057755491885738 -0.080941692033256629 -0.088271332078410092 0.027605252384273221 -0.0038428533148304666 0.020920816678748341 -0.07553308643916265 0.21534129768489166 -0.045523074295104438 0.012363669110161107 0.01772194894949132 -0.074103142608875155 -0.00038983727921166006 -0.0014644758961988558 -0.017567394460614612 0.04290721122009776 0.029727879732796877 -0.20064746532891853 0.047552251897195412 -0.016926022016086319 -0.030174704636480046 0.069770154074851279 -0.0085469236834863748 -0.039474989113516185 -0.045301894466435018 0.034475983731594738 0.017103730423508511 0.0063280790890689166 0.032677447506194009 -0.01170576569821606 -0.021161291901655315 -0.032807075211579703 0.0048473016063839266 0.0054403511228030632 0.1420396886800302 0.0052845608981622674 0.025272897455956733 0.049083888226818383 -0.035413010130007049 0.014131573782146441 0.0072775155040107611 0.13385201128902124 0.0027106289044151752 0.031116490734910286 -0.040322854179086792 0.014754073544145952 -0.014174725913534605 0.0068522351743461303 0.032651205209255026 0.032514517200178922 0.0084134449204346963 -0.016743400640480032 -0.038036833242213207 -0.019966080743829006 -0.059103221137187245 0.10645592819709968 -0.053532747245871544 0.1208798987215217 0.025456926531447745 0.0011854627971009369 -0.034207383403930661 -0.058841567139739093 -0.0050795212909939087 -0.03318363314709305 -0.086769008832833713 0.0084134449204345974 0.024808559010447744 0.015662910385536761 -0.0015450258463656143 -0.050189679336040884 -0.073238569659040506 -0.062734997719102334 -0.00032388995599835871 0.027799339849827149 0.005154559705521854 -0.0065869557120192034 -0.064002808927983476 -0.0047783391279043299 -0.076271690801873973 -0.076074724097281457 0.13310263209004222 -0.017445503599148725 0.0089447644796946859 0.014927963906478903 0.087464291446652423 0.023094966670245912 -0.015395948545416139 -0.0052282994226447452 0.025736189367581062 0.049107546863227693 0.032481490509043594 -0.010221401601892955 0.067733506898823528 0.055018857615020691 0.00833421602041471 -0.045710837106420571 -0.15565212010053989 -0.043318605695237163 0.013968882677561439 -0.037880373262901459 0.090344428718111866 0.054497548727324631 0.039431139016040832 -0.018897660019728091 0.020737643519304284 0.1015684552056039 -0.00048025325944853192 -0.020044316765859597 -0.0037524335933074343 0.099545010767995767 0.072866978972751822 0.055659909789093506 0.022537288386938293 0.16770509582706941 0.0092034378579004331 -0.047600746804125717 -0.0054644465309267492 -0.12548077358163023 -0.062394498939682054 0.081440983676280318 0.017000737388850773 -0.017795649408129367 -0.02416284134036726 0.027566441096426537 -0.042922868572506601 0.054088243611250891 0.022591459869359225 -0.069522033098683281 0.17818118843450079 0.0019254713680277495 -0.024225223493290485 0.037995472753571971 0.0016692828121503067 -0.075349132317888354 0.090841189440317105 0.041756509416717012 -0.01779564940812927 0.028250953849632322 0.039834903786841951 0.036135893783748499 0.0042961495712030492 -0.014205638899048268 -0.055326240106484945 0.0011921482437457418 -0.039101960950175638 -0.011042653132562861 -0.017825553608816023 -0.036533704651607574 0.029842959069911613 -0.10372503890170724 -0.02368648055190745 -0.05684903347210158 0.020135374621954541 0.010482923709975001 -0.010493034724213294 0.10469230100571505 -0.012677046992947229 -0.01422229446978244 -0.044406639286111452 0.041386533015489765 0.014126534313930829;0.016863360909834101 -0.0056452965303495127 -0.095858436234023833 -0.055326505286809997 -0.078045688609540059 0.0073311757501333319 -0.063896447867627076 0.069078705745707944 -0.024420116405545082 0.19019556211559532 0.0081769777459541372 0.0020429083061897432 0.023076399020778189 -0.030502052884015619 0.014666397788617074 0.023472255295975172 -0.025121431132894188 -0.060589140285642974 -0.033874999566621329 0.055242973408642759 -0.038647361858686384 0.040600959672304218 -0.022028162157897935 -0.025410464118482239 0.0056985158703858931 -0.071115554736656983 0.027137738634355577 -0.0013272354302815146 0.16296685497216132 0.10394587094508427 0.032892056215036318 -0.056170519328898258 -0.0113931869287036 -0.00018475350070041544 -0.0094585923687570492 0.08500192361055528 0.011543057075523909 0.030232400459345093 0.03044102533738368 -0.044934612761164325 0.039673047869276633 -0.0058202949378848698 0.016631404659589472 0.0019314601271653666 -0.11182760204522582 0.15393286626968244 0.0069635311141906251 -0.014831380745785303 -0.31964933879544766 0.046149804252135412 0.0060304514903292503 -0.0052129406267587049 -0.016068690590825406 0.0059698309792507601 0.015940727473425991 -0.010038268973951566 0.0017416406984853505 0.13080961864703555 -0.022731232194222808 0.043617371083020669 -0.039713596268783638 0.028591845338612976 -0.013004437213667567 0.045905307045594472 -0.022789445580033259 -0.0057949124717435853 -0.10368335293176746 -0.050398389634984019 -0.078028080380253176 -0.0053009188600860605 -0.015309892821081254 -0.046569240895568229 0.052683460510980336 -0.08958088587008893 -0.043414902445909058 -0.011666485620985753 -0.3196493387954476 0.04614980425213544 0.042802708730218395 0.0086930379202824135 0.035677243235918955 -0.045767059087927317 0.042281789893516761 -0.074074228739653289 -0.020976970137977884 0.0067235825920769158 -0.026613822471858666 0.064307188274068783 0.031484603746045121 -0.028474688470511766 -0.0057720772634493028 0.036292065307097617 0.018987739949774152 0.0093785753437789655 0.056482337335332207 -0.13748447146680873 -0.20197687783501894 -0.0051970301737205215 0.033822762115410257 0.0077787322324423805 0.0048740514947302107 0.027829287273633513 -0.00063044578171845731 -0.027646040582279756 -0.067235713630001165 0.024206913470476578 0.14694193501806288 -0.060177479066162845 -0.068085312369704123 -0.055439389675521818 0.086592544755708975 0.03395373458950042 0.022541106931287521 -0.038325873866267485 0.053290442038599631 -0.041994408518962502 0.011161217967303638 0.084285474985051845 0.069700743529833659 0.043250732398345773 0.109905548665583 0.12852745354785089 0.036999386779806499 -0.042741429229810508 -0.030561281158447147 -0.022225250415536645 0.053314865949121909 0.015877447288656171 -0.028200231345590444 0.050119157200403525 -0.021733222395964546 0.046020866722722244 0.061232168361404923 -0.011805215991360467 0.061940934560189238 0.014885220435303149 -0.22051152986063843 -0.0052334274779319264 0.04289782825097118 0.10543022001706177 -0.036642650927693761 0.036022893824642556 0.04864199572809063 -0.0034920134604771932 -0.10441766248061009 -0.02549299227118873 -0.045912921517062937 -0.0071964283996398771 -0.017912776524682438 0.0040956852951927174 -0.083781706836046424 0.0014353795558212294 0.083637866076141557 -0.020197498722745396 0.033692700900694574 -0.067569332608034077 0.0048202924161579374 0.044048349333507826 0.067164769893057807 0.0029924896989874739 0.032956697841660686 0.0018253044542374075 -0.010684993217047902 -0.014253403667060576 0.083086995122169729 0.075435292831019671 0.0042925572020826802 0.042353928476228209 -0.013768852947450227 0.030531849048356229 -0.017788937693263365 0.0068700393618558835 0.044407956508202631 -0.058812166667492838 0.0076790458466369574 -0.0086787325282079841 -0.030556468307826372 0.0058870301127875507 -0.0039502638797888181 -0.030675181555681913 -0.019699460347795489 -0.025336572854389987 0.10337291994996541 -0.10042166891573238 -0.023516630452994788 -0.030556468307826375 0.0017425290748190958 0.0093064042510462696 -0.032700273919122266 -0.064572195568106061 0.027234546765687997 0.076859961949853589 -0.10231010812177978 -0.17967596148269951 -0.053199794855817974 0.042353928476228299 0.022278426045441235 -0.013723594898421771 0.03264489764604675 0.033749891812477027 0.02427524919218493 -0.05944395536253344 0.0030853416998274769 0.010501476902374431 0.090391135364555619 0.079963112992898738 0.011174996502809838 -0.063782142955655596 -0.028962567079103045 -0.054376255219554762 -0.039257933304356903 0.018644494702798289 0.005351928953891443 0.033757908755597532 -0.066466258531826375 -0.034966281820317406 0.013242172634415492 -0.042770827373548842 -0.053730214494404308 -0.021153238457387688 -0.057603327493985605 0.050597670546824798 -0.013509044107715083 -0.014801772786268144 0.007044086350983028 -0.012752303766420052 -0.045396220226697578 0.011757791471459287 -0.084690558108112421 0.0097114929372640081 -0.03986296711678982 0.059808392589006942 -0.0031564227646075859 0.10807633138115799 0.12140102885970071 -0.078950877821805626 0.015367646220136012 0.0012350233410827829 -0.0039866221558503799 -0.0023449424971720778 0.012809660091641958 -0.0095538943778850065 -0.07573059093739988 0.0406922974375259 0.0037288198787255376 0.0049747767387905558 -0.01394380678386942 -0.04402872321603276 -0.039801650636478184 -0.0068655414925748162 0.16248824988638866 -0.080509934509553155 -0.028241883796076849 -0.008297632426975534 -0.022049191963693256 -0.040840569422711637 0.0062681301542010966 -0.0042382179096252873 -0.0030674481053898119 -0.013786032299073764 -0.022342103908943908 0.062060139848319783 -0.00515120745063805 -0.002511094323033777 0.028407808269354674 -0.059785939188428464 -0.012329118101515036 0.025682787864954253 -0.026538111582653855 0.037152442287050474 0.01594205687701692 -0.015164626980413026 0.056642170675829356 -0.013314154164690619 -0.088261998722807725 -0.0016158899674251937 -0.0081989200142590316 -0.011002255579102742 -0.023067866016603343 0.048854055066300264 0.11731267338810782 0.16299609541098348 0.025682787864954256 -0.0091900564620724969 0.02603749787435472 -0.036639681852940024 0.010184395505089216 0.0038026066280390436 -0.055498757344378466 0.019827485032706774 -0.04019325505026327 -0.0084485447830119336 0.0056714570943666408 0.0024118303065578687 -0.003239122118182578 0.012036929910337772 0.0080118387527386131 0.0051128492829125198 -0.1030257733089764 0.007176143802221327 -0.027525899078077617 0.021475010089020093 -0.0039467743432775558 0.00012794061615214729 0.016070228281231939 -0.007399886291545069 -0.030192419438620669 0.0051331044651959099 -0.035218100436741187 -0.027266850792716898 -0.045987510505680666 -0.0078753674568139351 -0.010037555121526185 -0.14737844764697486 0.027059932034329014 0.0088937423212005224 0.025737045283746676 0.014955295965074132 -0.026659663091394375 0.0047043969105057615 -0.018877283659242839 0.13998901176313505 0.1307913440243697 -0.015016297842515219 0.0014672687534176207 -0.025532048361307055 -0.036231962424390127 -0.034186234690073654 -0.016488576054362918 -0.044138936925166218 -0.0016018706922526376 -0.017092596191271854 -0.0090721938652374452 -0.049695062714186944 0.081361859311410392 -0.083748442276407944 -0.056113813864935087 0.021501401078670202 -0.0019269428472964572 0.011537100488404688 -0.018327149768973233 -0.05691702519627298 0.1739900625846843 -0.055161796756081988 -0.028995300215897607 -0.021233136052507047 0.0436996755214481 -0.0044833227432091371 -0.022568671123590626 0.024439477307049661 -0.022715893680176059 0.021159112828238163 0.037653889149631324 -0.0019269428472964653 -0.046187954757456948 -0.037982684460356728 -0.093807604847988377 -0.054045306163162277 0.025987427098875911 0.025614819497061892 -0.097104195817124483 0.034270324774954918 0.001235517994667834 -0.025888938714874354 -0.033909031108341786 -0.06654534905680716 0.0019292017861355002 -0.046232361137040358 0.0075866401010014134 -0.07202818132322264 -0.013396797124425711 0.005987315808435114 -0.013594066808081829 0.03934345045600237 0.014688979826994648 0.11059938857918375 -0.010540716983634426 -0.051332042908482853;-0.13665810312253449 0.11888666020597215 0.11374148588741782 0.090950432666800599 0.086760382781952528 -0.10214654468805222 -0.043397683698971123 -0.10897031716551758 0.059085653966334931 0.16962486686811173 0.086127537823576863 0.062550406768833972 -0.13197655548202789 0.19623135044325599 -0.12507461107846962 -0.0080582493605737791 -0.10680147928352894 -0.16223971789887909 0.0048528146386743777 0.089569183599569627 0.061864046832153526 -0.11734967491199204 0.020333051491698267 -0.016146399737395713 0.16249300268923872 -0.057980390147498867 0.1788494216620333 0.26153571532145425 0.1325261125664173 0.059816091459162356 0.094190525679786349 -0.0097026936509135315 -0.036662087773362224 0.11202944330304181 -0.18161152373899114 0.14399666047726839 -0.029606349626910188 0.30968951176420073 -0.044227620051827406 -0.049341940279695837 -0.20346035729088477 -0.084790587802368422 -0.060401695452762381 0.16113237947628992 -0.069471988557055192 -0.14802589115678402 -0.031488438133974464 -0.21328341719970559 -0.32772832510648447 -0.016974146223446108 -0.23760639443947509 -0.093276957057870216 0.15214434657834885 0.062388190764299745 -0.22904236310481441 0.14326798692918638 0.10766414695758726 -0.16859505935965546 -0.022393272112993644 -0.14697538533448024 0.2506475035133276 -0.026358810344799078 -0.080421300449092389 -0.42029135366693271 -0.2834912040471711 -0.31427365728224776 -0.10229797930370142 -0.018970839529442601 0.12621453174594546 -0.12158864753487314 0.031597157175170192 0.064568615534534607 -0.079181407133048082 -0.11184263800538237 0.20182914331784679 -0.10719250776408655 -0.32772832510648447 -0.016974146223446108 -0.15784070317146001 -0.004656317861686304 -0.022426749336354215 0.18557731970116784 -0.12529802451981661 -0.021515530257145286 -0.1509146510188466 0.23544278264033705 -0.0038062290196827541 -0.011675190823923471 0.0048868668446150083 0.10067771273331835 -0.031510177075654816 -0.10541339305079835 0.066339578433863899 -0.051232859604694141 0.29881668328955041 -0.12055311787545535 0.079268364148989134 0.20570145209627239 -0.15851041663842591 0.018160331035951816 0.028577709393230909 -0.073345294835422556 -0.12546155292303965 -0.078186188792414624 -0.0062612374458947935 -0.23639828096031124 -0.1463628586835154 0.034195010259909092 -0.037859323891405589 -0.14080139653309245 0.016927768098896109 -0.19685787866887519 -0.014813446190394149 -0.034169966216526286 -0.074451026985309823 -0.19759294154152859 -0.20608177481284112 -0.0026201234413916652 -0.06708600431055832 -0.055065033029739321 -0.23579569234502845 -0.16853005192220494 -0.14324382134050595 0.071552803894041006 0.029718454770779432 -0.36477804250116835 0.14710817251420616 0.02593232529092129 -0.19008118170603885 -0.11904795834098264 -0.06811650699553988 -0.2129882585905126 -0.242561613324073 0.053641948527119093 0.20880106610784824 -0.21063199767308019 0.24756550454849832 -0.076162642673728562 -0.068337721147917613 0.11048721252179326 -0.032728822370631433 0.11561017276186289 0.21483055348017752 0.24712671539025849 0.23840377973522028 0.044883644612541067 -0.0099672747625941423 0.031497407991717977 -0.05010126193698642 -0.28132907860179235 -0.20959604650771224 0.090274452992069973 0.18642567348143022 0.29293820321748298 -0.03886158175842868 0.071783923967924948 -0.13910487212639805 -0.14712967860578768 -0.0094172727378195389 0.052493864918491777 0.043452787205658948 -0.0063197087467536574 0.0051942424136725805 -0.29606721839472455 0.0074480164755405878 0.075320338983121585 -0.30396376318153007 -0.020782665843083616 0.070954601361413724 -0.0070721448946748054 0.03220018986625222 -0.06462495652181495 -0.26717771755056102 0.34449542800963029 0.050472783195974397 -0.058051584833297268 -0.021718268066769474 -0.07155243144699755 0.039006836968752678 0.18250581459218321 0.23758830459784971 0.15211879501016082 0.013947224044977663 0.15145615308522051 -0.0085517967091797067 -0.021718268066769471 0.023009351527298796 0.074902311371138355 -0.064236018286573673 0.03289592882259626 0.050404867258325395 -0.16284915983276776 -0.026971754549993957 0.1688490792481091 -0.089696312337492659 -0.020782665843083612 0.10708965926719287 -0.0019157194315855613 -0.12541535505182205 -0.13683694558491016 -0.034339073126215147 0.2344966783219872 0.13259278954388534 0.33039950188224848 -0.058763978872331139 0.18377880066987556 -0.12459273406562803 0.023408854702885527 0.071476100494726025 0.021803561772000851 0.0830950940482659 -0.026249872213331256 0.3370827459430466 -0.17131135917726265 0.20311794495668936 0.04577731848424961 -0.029112951495480752 0.10421524659903554 -0.094493114078530477 -0.2408562546436358 0.029908941243095354 -0.1985454027727318 -0.17234143779638189 -0.46493732210961586 -0.06620550481017666 0.10649486956278882 -0.1286156310689956 0.22169178371381001 -0.39142790330082122 0.015694957608707486 -0.14977089281895678 -0.10093807947381442 -0.2254765199272887 -0.1362693465737925 -0.30504386675891021 0.0031543414581839328 0.064506678707362347 -0.023785651002456033 0.011679743090266727 0.057030800861211838 0.069693016659798337 0.075263128540086779 0.10312492534655704 0.27552816551858916 0.062274071163540515 0.10685036078754366 0.049785476438313825 0.054861453078894382 0.041373673362055448 0.050770049673069355 -0.093642950757548485 0.12277630140298007 -0.091081908380459237 -0.07394268552622757 0.10048247656180231 0.12012637742111741 0.068958495893536254 0.091057838141264405 0.36474825537231925 0.062267744904504541 -0.0051353411972356018 -0.13439645924885379 -0.012531955634746062 0.012252229672031606 0.021392894860401385 0.0081092455503151278 -0.041333409106375361 -0.015988055714340171 0.00056105525705027991 -0.1449499569554307 -0.036987028599734989 0.088543102716201944 -0.065590765857236485 0.063034764064711354 -0.034973335487302908 -0.074781241481613331 -0.086367745977502727 -0.024571745414119807 -0.005760622597969973 -0.0034376154439022576 -0.079835164263464445 -0.037434176803734516 -0.015988055714340168 0.025510202725957352 0.016747938071739746 0.021323789808567473 0.0048841594603027472 0.049412144728680302 0.22484640976775538 0.35120989280460374 0.059879970701636344 -0.070867882340734753 -0.0093791017117849911 -0.0056935028523475272 0.069628770300117312 -0.030483595161463053 0.087318257636726557 0.068379635942575789 0.16802514893195061 0.022641360401815729 0.034848652483195318 -0.015410627445002267 -0.045645119010518889 0.1736359219249789 0.11956530189941537 0.42276030892864291 -0.088269238225332974 0.076718715158404324 0.079481086602899265 -0.0079187314716070295 0.2016949633990805 -0.071946647669115918 0.13625141849480923 0.41128320257783091 -0.025195690630017982 0.0070164578924280284 -0.15651517723990119 0.33758416751610021 0.20265031520152563 -0.1591929590333554 0.02349237056954313 -0.18637371675723891 0.048006323937126422 0.055038617182948987 0.13460752352381866 -0.0004244947866330652 0.013869393615054092 0.00095932605755775222 0.071940933957011038 0.19502042846333864 0.0091607151019772286 -0.030195842776025904 -0.0011167947919970759 -0.0058683510401172749 0.031423306802171661 0.018133825628690928 0.22798596343862879 -0.089907140482390555 -0.01140514362824291 -0.089906378585712987 0.032426959534876246 -0.34442557425498033 0.045450823558633772 0.076871538005525888 0.30024871516004303 -0.00035725259136672053 -0.0044954355711945282 -0.20817201417766942 0.16491389671734555 0.20697160205214485 0.02804085766926679 0.069205105196236502 -0.013621441727480723 -0.01140514362824291 0.13568951650001071 0.40183337279208003 0.65857813669820753 0.13095383661827695 0.072357650633108936 0.18574435389164029 0.079206794173997883 0.075901362416885318 -0.024448691893240202 0.043870498827169375 0.34185348755490952 0.060644992656542517 0.08440249286079804 -0.14386438694838749 -0.16627405917694332 0.160353168421557 -0.19434051438942282 -0.047166269022707825 -0.13111612030717754 -0.1121583342522567 -0.018624075703791945 -0.020770690459640272 0.036739503605467135 0.24061466615896063;-0.34451568927857767 -0.44122445398660642 -0.32069905345318606 0.22128110275754426 0.49000386901286569 0.06028291634180083 0.21144071550390361 -0.02150341964561207 -0.18538030084148546 -0.086279737796239445 0.06686265418044772 -0.089921478174012637 -0.075098309611440692 0.28729154727354511 0.16660542737652037 0.072543579661898394 0.17164814140014614 -0.70529087887317521 -0.6400371886346351 -0.047235022057648339 0.023431212946040725 -0.069096615461070807 -0.013177428282299661 0.046238107044906392 -0.1381558796980798 -0.2129479605584223 0.073717177873453818 0.50435782695507125 0.60037338484906189 0.22701638215228426 -0.24707438047359792 -0.25073088979433888 -0.098327690493256556 0.052467726761161917 -0.06612276220073568 -0.37997926905336332 -0.29710338093529348 0.33124425946482394 -0.050682434545948583 -0.30761303941541507 -0.3393730438425574 -0.10129177057220511 -0.15188982324964131 0.11589004613002049 -0.35884277845803558 -0.46446965732259343 -0.19303388587605541 -0.1700040525490123 -0.55110549994441971 0.039120688140803127 0.19802799863267889 -0.011584572908105977 0.28004662483384779 -0.20258713331050876 -0.23156084671658583 -0.42597085237735188 -0.77490299777363691 -0.16277481795792717 0.053220844959058183 -0.3175023124079378 0.37552823569593535 0.0014200709405220121 -0.65224131750084491 -0.93344432607977845 -0.5047169837424258 -0.52560328306461934 -0.16235339534293827 0.039130630340734815 0.16131351831214488 0.0058187721992183136 0.058161276483306289 0.29784119464186981 -0.79927382784970236 0.38445329168435499 0.2343318709588291 -0.16485236330965675 -0.55110549994441971 0.039120688140803134 0.19231946645227216 0.024807674417254708 -0.13427803767545501 0.47312366817147578 0.025781858106752067 -0.40851429119529575 0.39666967344793441 0.20208270387720037 0.11251508275517773 -0.26343372183379038 -0.11599459891084632 -0.10157002948311845 0.07020842407725264 -0.05900507061539894 0.54926156654177882 -0.19767953533744262 -0.073123588008775386 0.4253261718681553 0.57646860364946806 0.56956624764530372 -0.0074082912942749482 -0.10489154175216751 0.12235989274161545 -0.0046356891585645323 0.28012802299401324 0.17783836702264819 0.45149208273893349 0.063333428167586039 -0.67912471931146901 0.19431930988743473 0.034096735643827501 -0.040582618706820214 0.15891440146144137 0.27058477210032245 0.043908294768685519 0.36109063946960063 -0.15449186582018318 -0.22279267126511335 -0.43823052010649072 -0.051049686514062644 -0.58645627973587078 -0.28523008264087951 0.38235493766118617 0.067232441637096116 0.26488040324984646 0.2198121827780426 -0.17880236204641353 -0.37883011857074428 -0.30295742713620105 0.31035781539085294 -0.019228451231108341 0.34037851977512629 0.27115317185500698 -0.059266627682516636 -0.17299112972946745 -0.21466059268273488 -0.086382249824976165 -0.4303251715303667 -0.10086598370478944 -0.072562762022905888 -0.17742720153347621 -0.1409344916861823 0.19071622318158285 0.31388044355711264 0.19208150373997634 0.0024863402676487986 0.40479246926159307 0.28628108658445539 0.41365399856298957 0.0073697619418718954 -0.38935959096373712 -0.34617834377992351 -0.29124607369902333 0.41766094327175624 0.22401465031699277 0.52922261140316462 -0.12707148723737841 0.026179403631875379 0.17335083035581661 -0.11871332586448857 -0.07191323395469601 0.23126301779579994 0.10424202202560311 -0.18131414430967346 0.2060847315595587 -0.64310172179814884 -0.13366103654823824 -0.1802222065752562 -0.55705840625418257 0.042078921482837942 -0.28640026833899185 0.026279574862465249 0.2240285255597203 0.41217137576548057 -0.51885063702015477 0.27730833447169156 -0.072295459789449498 -0.12259055844025463 0.042048339004534786 -0.015132645018535132 0.25379922077054184 0.28266298371682264 0.46018608636358377 0.36978221864955096 0.1408839775192573 -0.084907299865155161 -0.12286866683239753 0.042048339004534786 -0.23115239644007496 0.12811470857432647 -0.019651482139730343 -0.25754193325948971 -0.157795692180205 -0.30408421727261298 -0.1408622441662318 -0.17813846365095182 -0.087085028126121358 0.042078921482837935 0.10394866379522182 -0.14405877603581113 -0.44822058882918597 -0.074964702866288022 0.038050432518503409 0.33305289191888804 -0.21053950463510615 0.79601731792339603 0.14948002694868054 -0.097828954950112026 -0.30232271135262645 -0.39473423739493285 0.32589148682429764 0.1872305179834311 0.064623225543369772 -0.25297083463861375 0.34953451623285919 0.076806642721849561 -0.035843531180770445 0.13881628889412304 0.028351555366360477 -0.35339523513943877 0.13925766378928026 -0.075621353155582924 -0.19268710066678893 -0.33986674775265246 -0.48467446482192217 -0.98620069894163032 -0.36610555333685618 0.30015819929435206 -0.32287172378879064 -0.34059043369288355 -0.38692182633097777 0.047110355503300443 -0.13606511259160867 -0.023141110695219437 -0.2081615148048758 -0.48587042114073536 -0.31542107862590518 0.13064061900257612 -0.011662820687388871 -0.11178547752619171 0.1960053308436964 0.21394006230168888 0.14991340744156631 0.068133200356154833 0.29130047287798755 0.062301429744194607 -0.061919505032010748 0.18642775198762734 -0.17080745748784879 0.16611619784456949 0.46531187403641883 0.057063001111291582 -0.16375240939786839 0.16563996874362411 0.035531430583644712 -0.19915032909634067 0.09498650914222169 0.27113590517205532 0.40623816472064089 0.13680426564775661 0.24969013828676245 -0.085573338923929404 -0.29915012833794591 -0.091432968921221824 0.12299440609673709 0.089320202810305283 0.2999603290384496 0.21727961353293543 -0.15820189205037449 -0.15297323422694109 -0.023927314386709361 -0.52117690262302541 -0.27510346400785657 -0.25210572006353582 -0.041908379719866821 -0.17368793139495103 0.0099013634070467399 -0.11152564496389065 -0.3660739233434171 0.018592798120347458 0.22023362137923069 -0.035879505216980363 -0.075144087697496226 -0.15997606161717753 -0.15297323422694109 0.040395236548466627 -0.14725617762524137 0.007822392811284903 0.72881126231481552 0.6750609223924422 0.63295512957374567 0.24248715777464161 -0.081579787320033126 -0.16219292658329706 -0.16763448485700905 -0.0042674276261323515 0.42231091703222912 0.27301614128134655 -0.016610080437056255 0.028281556746306301 -0.085055493545022245 -0.1446500548887581 -0.067436136057566196 -0.019373277248267432 0.53025470248235285 0.33561464650143169 0.036261240207687284 0.75673130826892543 0.048450326119006737 0.21280280116247166 -0.0028494093102321687 0.10875866533997172 0.36039719273811865 0.48577162324377204 0.22784333132403359 0.42010834172852529 0.2054151682496646 -0.13937662063450112 -0.20596217109687112 0.11469959041147035 0.035151720621936881 0.15887901678704358 -0.19435016201648866 0.21534994110009578 0.17094171794483393 0.14594295733795101 0.095733930213722299 0.21866860146728515 0.070732150531597607 -0.024562662942020277 0.35349403925579076 0.21554021867934742 0.01789812325502408 0.08659139428862031 -0.0055049572020095909 -0.17758712453863798 0.4061025181841994 0.30332353422948738 0.060041639875205166 -0.18241007621678451 -0.15319932778293496 -0.015472541722100377 0.27118854347309979 0.12166119284656252 0.42113861047748696 0.26317515474431907 0.12323296885888776 0.007836143200224719 0.19053906593338199 -0.044143166300163704 -0.16821956426229578 0.14987285603001119 0.4102193563283027 0.048121258584339278 -0.20140258933869398 -0.15319932778293496 -0.011298159475539691 0.42651626764441725 0.774532203001566 0.33382833676057794 0.080045029602447332 0.10245734472890299 -0.011406940908289104 -0.065082207980305562 -0.026224246434401424 0.056428547608737209 0.22101633816465835 0.26882786089455418 -0.36340508503435986 -0.32732071975746979 -0.26091267075208613 0.13240118951315843 -0.18620509611323285 -0.17887407789825252 -0.46216669811208483 0.21516164319470754 0.019564084242829918 -0.37314354172505626 0.097039997515220827 0.066542164034693443;0.049961867439939765 0.032813157752846614 -0.06458614753757537 -0.10916682526061652 -0.10708569591102389 -0.087798694182153442 -0.072145539662382727 0.0028938393454962276 0.01769993034202224 0.0035403848693593989 -0.04688213677754216 -0.023888061682635617 0.029341645486360431 -0.040404574257511698 -0.016011744819185356 0.035929751873234043 -0.0033770910242122017 -0.051700228802920592 0.091531083708503963 -0.031623002376275647 -0.047236275619853461 0.017909391696458971 0.013333069934581157 -0.035912600685319949 0.0058049791168360591 0.003780398064790491 0.053204136578003991 -0.05842592406477895 -0.10960002000658489 0.13708923748729571 0.070504888824954259 -0.0078159572371229342 0.046545271493655532 0.021829512781958028 0.039491755131949816 0.032317352806100395 0.055445064798066615 0.024925145140212143 0.040436870535963433 -0.063047423202191241 0.0067403493359310066 -0.0056790646454620772 0.063789022511677271 -0.089468622277919921 0.00021343244707376465 0.056338946383977906 -0.074716391866094647 0.010723330217952838 -0.11493766042132343 0.058936030815907918 0.052857571263472965 0.001842294967290456 -0.012792027121545816 0.040546775466391724 -0.069557921692559463 -0.025247243544482652 0.064240409284893288 0.063508192191370563 -0.074323934689707105 0.050361181978044504 -0.032069635289162318 0.048777268175432723 -0.010911126790590879 0.061034452729996871 0.08853068327918516 -0.042510419971305766 -0.175015272381006 0.036515599117753136 -0.023474161847739379 -0.059942390985703121 -0.030594229152488817 -0.061221209718923739 0.050549157365230392 -0.02121868732129566 0.067901116432582106 0.19044193634381684 -0.11493766042132336 0.058936030815907932 -0.0029301090794781543 -0.016779803261848979 -0.0094643318646257142 0.0040558818105828221 0.031300620983569338 -0.113646685584473 -0.077798115621193265 0.062985726281940657 -0.042481301576067401 0.096607854767439466 0.015265499248228495 -0.012841455178135962 0.014664441988826568 -0.00063604967912497248 -0.0078503882601988779 0.04794397647944007 -0.011617257464061833 -0.26216549191613642 -0.23597380725010611 -0.10144773299126777 0.086931677025721438 0.046109883848059724 0.022964509260187452 0.015811095443362053 -0.04089087619456154 -0.014706380027020462 -0.087123545926638749 -0.031851185565482415 0.23928164386405543 -0.091851581437568192 -0.036715793100108869 0.0033853435100722243 0.03790522060262165 -0.028484527203377092 0.0007106079097491955 -0.093163690438149954 0.012734954504935558 -0.0036550938103208689 0.12629230716847037 0.079761927600113164 0.073320837094875316 -0.020518575840142952 0.048106279538016168 0.066369618844155556 -0.0032034199350462868 -0.033074105241163838 0.011772842511461839 0.024289078088394943 -0.033490787505742574 0.12978797821146382 -0.010762797613465771 0.034556744513103879 -0.045436536109775189 0.095967809245019908 0.054489559799201982 -0.019655949753168145 0.096407413056300864 0.049489518110964963 -0.15542942302788954 0.038379106488958023 0.071461496759015641 0.057077994617232675 -0.062504195474997304 0.017116814165721441 -0.059739893821685826 0.044904938807473614 -0.038035671949351833 -0.093342657006069293 -0.071180205063496413 -0.065337766722359178 -0.02347558647294979 0.025043721379692224 -0.030800113771834017 -0.046521220949086339 0.056925037919170023 -0.0050697436080895846 0.037414556413667872 -0.063277206942642106 0.018947548803630556 0.082324901679718773 0.058365280790025426 0.017589247536817638 0.051128052834803921 0.015556967290753041 -0.03217065186336223 -0.011698304219271125 0.053761402578474629 -0.17652546071325259 -0.19026897394647094 -0.048488375313570788 0.04412456737107455 0.049313445249271851 0.015965549329979661 0.050973376703215945 0.078203826455163258 -0.058852352476983075 0.068882345236484094 -0.014910903033937823 -0.0451010188417219 -0.022188442957133139 -0.0058914270636221851 0.0010248497811025511 -0.022390443597546335 -0.02963615268222191 0.087515869078024555 0.14724560783476565 0.13753514866909322 -0.045101018841721872 0.053178012129645819 -0.00024203723346747649 -0.03954102652996716 -0.028149850873075432 -0.0030513353078280756 0.10756640290691322 -0.17841186748984647 0.04790527174659602 -0.17816017877018564 -0.048488375313570885 0.014146076084871338 -0.0089754394520932465 0.076256480387362158 0.07671866511869066 0.033029799286020331 -0.056724874975040709 0.012956392176615782 -0.16500343580140414 0.0060733159469547066 0.11164361688913915 0.066779441190225539 0.0068804092260605484 -0.07403766507244923 -0.060714185144701484 -0.012161916626469099 0.072051942989687603 -0.019883841875493073 0.11588067939648221 -0.087720629286137788 -0.076086626458847464 0.017539579270278303 -0.0078026203204036235 -0.098514854198125862 0.011886189825782321 -0.063225862045396708 0.10244071196817441 0.054998807119121314 0.065893372399202801 0.043949982852095462 0.011052481086693293 0.0014594852251393923 -0.061610368030090602 -0.073088219988186084 0.001907064702969942 -0.017085530909684604 0.0057372992938768998 0.051928277280922461 0.13642893953267918 0.078413664811677719 0.10906044387127568 0.01571538745189591 -0.0097027354355465646 0.036812395698433746 -0.014626866470933638 0.01037422809438391 -0.048957564129178857 -0.12057547638169964 0.028373008218658603 0.005972956790399513 -0.03270273563625227 -0.004932408977094494 -0.015853414602940697 -0.024266887648986393 0.049494865310393432 -0.037356096836821326 -0.031370819141203043 0.012298027907207732 0.01311051275696979 -0.0031178819426881648 -0.041070779953237643 0.040021836668951719 -0.058636724940147718 0.011440158610143317 -0.031865867428169534 -0.011485473318867784 0.038392552209494127 -0.0039719910809878 -0.016218913155462283 0.016796881413075497 -0.011258344626888633 0.11861543837896028 0.016700792813402966 -0.0016981510826837212 0.065349117662557438 0.03004594283296793 0.0090144006075627264 0.099884456198412172 0.045065495313661073 -0.013134911874287881 -0.027468571744423149 -0.0049293744039276399 -0.010135252369695539 -0.018481308192995691 0.0024303095737276243 0.029775598344833287 0.079381023280041069 0.016700792813402948 -0.028409163788690333 -0.0032545726280275855 -0.021764043370612583 0.01441574010923438 0.018023318502942403 -0.044208083422157214 0.0021914942802470643 -0.001548154517152338 0.0097496410653696419 0.021064938965985717 0.01047422309040155 0.019407041656353662 -0.010697763594184839 0.047416033458498763 0.036122274915253494 -0.029549715684144107 0.0018350511509652374 -0.025765327822644034 0.053463705654926856 -0.0052030354771958861 -0.060220983123822867 -0.04473113091495648 -0.012378610919816476 0.0091559307532201595 -0.013670000384690514 -0.027891244124223318 0.0055972218788483902 -0.054121038259331726 -0.0087974016801328787 -0.02283251612210414 -0.18181232542118195 0.017796469467894076 -0.0063558812189411463 0.090519078363091754 -0.00091238522844461613 0.00096750015685578383 -0.059250482366038235 0.00017448863623110853 0.099868470280871216 0.075744432252778049 -0.018516253299444875 -0.015457971007346595 0.017248149930574396 -0.016351875517278402 0.026333908846141476 0.034597917530270111 -0.065627814370883747 -0.061277987929017647 -0.013067280666700159 -0.027497706560203908 -0.045258492144115953 0.076442644232546278 -0.088396865542575073 0.0098303264609699795 0.05669882000543585 -9.8122270347433303e-05 -0.011085018135102749 -0.0062297612857669131 0.014506312199233708 0.081351268675292951 -0.026738293396400693 0.030099210839777381 -0.084958782657699253 0.030342064246077296 0.0057530022488584045 0.0035890253054272347 0.032613130264114637 0.010592443752846601 0.12910575811171365 -0.055473176143206293 -9.8122270347573721e-05 -0.023140274878832821 -0.084945907393284642 -0.043735314888108542 -0.056944238945973391 -0.012883570252235452 -0.0076392848508358164 -0.14282348167043354 0.043617489423066411 -0.00090347103534804641 -0.02490074340640646 -0.0033174817871134575 -0.030924797545934694 -0.041104039982113968 -0.06220261419221184 0.040237117848712672 -0.071576654606862203 -0.018050048026739263 0.036964595265957627 0.0098496264216236338 0.068988207190400289 0.01299966691454744 0.079923923811995187 0.047869209364111834 -0.099163560059509104;-0.020109746482317729 -0.11168556094714305 -0.014041643287116816 -0.0098089896683958826 0.044051000151914252 0.1339283069482467 0.056378761506477845 0.0096624080396322809 0.12749427340630701 -0.030894620336965918 0.031096216916961072 0.025576014925150554 -0.017287064120721365 -0.049951729822688494 0.037064772121560022 -0.019293478102853388 0.027467899047983958 0.025134754343699089 -0.20187154787989967 0.082929712981693132 -0.050391311628154849 0.071588457685693219 -0.02149309335954154 -0.013069273815096785 -0.078695609490664425 -0.014332602550426378 -0.0069946089306929847 0.12543677770468623 0.048161553792144381 -0.068128752550894164 -0.081169448370278258 -0.055292069575504005 -0.059547606183466599 -0.045407072811547378 0.075680812860726324 0.0061821011414958755 -0.10812855797121342 0.081250655699842925 -0.023724090111637716 -0.0074514950492284085 0.033255229681104288 0.074765538399611781 -0.017201232433120588 0.047844457993139897 0.0061101126434193517 0.068247146091900024 0.11914544815998533 0.026313741876000739 -0.12069440698076896 -0.057846274222834164 -0.0014953333793330838 -0.0081817959262032568 -0.04815152081841434 -0.042916992912509687 0.11452569928980896 0.01441104653351177 -0.071315582432952815 -0.056821215794389777 0.087405351546422594 0.025348959579267822 -0.04185298404856657 0.011958887093008347 0.020852861813516237 0.076587397560466133 -0.0070593282052472716 -0.030618538236435539 0.028918503155984966 0.048287008998689727 -0.0015103576832145322 0.053965861295783978 0.011204760460358626 -0.013490998858839618 -0.034286731449586862 0.035035006882590883 0.0016165842071045194 -0.014243292730791108 -0.12069440698076897 -0.057846274222834199 0.050547889209137969 0.030466861393763062 0.026894362943079959 -0.098571996346346849 0.075608757490827877 -0.027509294096761366 0.041800141785005844 -0.20850987583593358 0.063080810076973623 -0.051999776277330517 0.0080690661107284921 -0.04035344132938299 -0.001339127968810479 0.050075443167258898 -0.026661625033309998 0.013374093228109977 0.013815517345948278 0.18194330870622269 0.16004093889924936 -0.074872205545114381 0.0066656244809589022 -0.036271357727630939 -0.045200534973201693 -0.0044701192124800906 0.079290800616781731 0.026054736747118896 0.044122862177907986 0.12354979389847333 -0.025732603466084854 -0.077416504798213132 -0.030611928491607251 0.061133499088225907 -0.034942672611431747 0.082205724134468972 -0.0026721642767416958 0.10299101249861158 0.0056982223686045576 0.0544320560701387 -0.0094916526459372218 -0.1490219247744082 -0.017019399562914712 0.037022655134207105 0.022056108740935346 0.016326156547823246 0.038080767620749204 -0.0060649734136684619 -0.030004255759653955 0.060944355487470438 0.011383820296789715 -0.028137025286824293 0.058446036254619992 0.020573975925433072 -0.014369947430100892 0.024847156959642028 0.016508436567426982 0.0095322921861426529 -0.08548721135460001 -0.0017100215323420751 -0.11054765665619326 0.0032765771055524771 -0.018281714628570315 -0.028068182859904041 0.0037426377144920597 -0.049369183275228309 -0.0095644188285106072 -0.048982882808927174 -0.041189393636421906 -0.059584711197110091 0.089741723988042435 0.049012434959239744 0.015373581435461367 0.040658141470014258 0.018996012858556541 -0.057158741233442979 -0.014920387172037693 -0.027381015533554015 -0.023131136048585996 -0.032628480159940812 0.014333291048738305 0.061095313453660476 -0.0074406146555340861 -0.054390953040948334 -0.050599843349738209 0.014992582642433316 0.055753285984607062 0.12180147428199652 0.00023966085293002741 0.032043942397032295 -0.095564877014840843 0.058352843237772262 -0.078221134721653998 -0.047078604073267534 -0.058339927014624732 -0.057271635451100568 0.055996749489085229 -0.12796642034905975 -0.24910910461994923 0.036997561568406175 0.014583195436077504 0.037544963518832776 -0.010078754948055324 -0.097425638173036511 -0.096294161030588632 -0.081568881107704577 0.00812361423147181 -0.13508878267488772 0.027208351606879833 0.014583195436077478 -0.053546366402126143 -0.051911492223923612 0.043476029788993432 -0.045046603070611958 0.0043357307427689274 -0.045186176076520972 0.10439813062531877 0.0010888347367329751 0.10886463254240385 0.058352843237772206 -0.062244217455464629 0.02894939333609858 -0.017127222203249047 0.0090354677642134913 -0.034662754635406169 -0.0016566646727868963 0.026758168806427625 0.095222462386321136 0.013514521038180407 0.061691897060597849 -0.048138047465121923 -0.045801302548755668 0.0026818169779056441 -0.0096211281271775268 -0.017885330000276905 -0.051487635055245812 -0.070318407529735602 0.027422961829823223 0.028593394584610379 0.091001898585591906 -0.031439412351399215 0.0066453966624055267 0.0026588513763518696 0.069438195616172066 -0.023221856067834914 0.032567384396080624 -0.027421386837640321 0.048474676614459332 -0.021177685170383782 -0.056147966251503457 0.043057828972696735 -0.01672471759022133 0.11733040118194868 0.022609800242804626 0.027806281352259519 0.037550231949207862 -0.0093124411074913295 -0.023445187716817677 -0.010995776986966393 0.23306285874799265 -0.013124301717477149 -0.013207050432653919 -0.0053913156298751493 -0.0042288967091603574 -0.037901437645176582 -0.016989259349871881 -0.2353238947379428 0.0077885482087099592 -0.024515011120453088 -0.00446743625370815 -0.056989974524959276 -0.033115659135864839 -0.038106356658220535 -0.0039685964928602348 -0.035919003072667058 -0.15097552651258769 0.033139780115461023 0.015148617779908396 -0.024741830328206 -0.04013673806858619 -0.083518018565729962 0.030005150611343678 -0.092337323216079834 -0.0030019806128264012 0.028858441615961745 0.02396498694408809 -0.0031684666799727031 0.014671187878271269 -0.023707567570745804 0.043703876364806146 -0.014770652220199234 0.023141190465140456 -0.025774725268949323 -0.0089427190458646385 0.01146752658419898 -0.079269089377851418 -0.022834257390134168 -0.077383316269495392 0.022006817825485834 0.020419555611948689 0.029326147082641609 0.019527916547624074 -0.022350739702315024 0.050671268055120823 0.017302287013222034 0.05603788848748293 0.023141190465140477 0.014857486770624158 0.021968583089907449 -0.025657334079861649 -0.0055282752097170745 -0.041214947750019069 -0.049806495527744347 -0.040221481742495631 0.045823395588181076 -0.0042545157931876965 -0.0033533195480711024 -0.049752641557394679 -0.074535063552264344 -0.011202593415090863 -0.054419204379780366 -0.12641459259922525 -0.14629660195095767 -0.0071015531406868788 0.0042173728856037289 -0.024102503532264313 0.027440277498024215 -0.0093019428280713308 0.037652517730988183 -0.10637480601000225 0.065060718852707436 0.0022954838534012981 0.033740432356213795 -0.028653200331159551 -0.030521696035856204 0.041245406019374119 -0.039997317593315707 -0.037835118747697738 0.024933638871811093 -0.0077099744736449771 -0.0082293627719898788 0.014474189247142008 0.045247327908419607 0.10438166918422931 -0.013228024227019127 0.048086893439577588 0.06076498960292917 0.014480107284292849 -0.028393748986462027 0.0057510833796997436 0.042877449821104217 -0.059993233937024368 -0.042537968053768652 0.062907169268204707 0.045547080057921789 0.033365876149411715 -0.017063647973723249 -0.0031652540837941081 -0.0065875039529661493 0.017840163914054741 -0.11950468105119631 -0.11583707223903078 0.021221621907963586 0.019311258933054562 0.01125786898892635 0.043275882554568212 0.12403941710930741 -0.043018399512212459 -0.067749628542583942 -0.04627580582567066 -0.035285095123595442 0.041370276718430923 0.018885193671175519 -0.036376745681069314 -0.068540359440788678 -0.17750083045586368 0.10663132611094771 0.021221621907963586 -0.0055106744543875997 0.016678451358492094 -0.036919886596980908 -0.006131419754563246 0.014314815472575309 -0.065973399437177602 -0.02101824133416234 -0.073679901106739845 -0.0028596904456824044 0.013282410688247828 -0.031554205810840237 0.0051790463035202537 0.016203820367931328 0.039017248873084096 0.00085193528637813036 0.041365283794171974 0.029898988742723273 -0.013795188593855444 0.057594487751256453 0.0088011213346559855 -0.019923019046799689 0.029839279612765387 -0.10437547336285569 -0.027956691258767825];

% Layer 2
b2 = -0.082654002072441404;
LW2_1 = [-0.96549588147814791 0.31500593430551088 -0.72944166444224878 1.1631910711823124 0.85855875301988516 0.87907143456965098 -0.29484756997504064 0.48123142510842004 -0.67250709451476376 -0.57885493193154292];

% Output 1
y1_step1.ymin = -1;
y1_step1.gain = 0.0209060911035812;
y1_step1.xoffset = 1.738733;

% ===== SIMULATION ========

% Dimensions
Q = size(x1,1); % samples

% Input 1
x1 = x1';
xp1 = removeconstantrows_apply(x1,x1_step1);
xp1 = mapminmax_apply(xp1,x1_step2);

% Layer 1
a1 = tansig_apply(repmat(b1,1,Q) + IW1_1*xp1);

% Layer 2
a2 = repmat(b2,1,Q) + LW2_1*a1;

% Output 1
y1 = mapminmax_reverse(a2,y1_step1);
y1 = y1';
end

% ===== MODULE FUNCTIONS ========

% Map Minimum and Maximum Input Processing Function
function y = mapminmax_apply(x,settings)
y = bsxfun(@minus,x,settings.xoffset);
y = bsxfun(@times,y,settings.gain);
y = bsxfun(@plus,y,settings.ymin);
end

% Remove Constants Input Processing Function
function y = removeconstantrows_apply(x,settings)
y = x(settings.keep,:);
end

% Sigmoid Symmetric Transfer Function
function a = tansig_apply(n,~)
a = 2 ./ (1 + exp(-2*n)) - 1;
end

% Map Minimum and Maximum Output Reverse-Processing Function
function x = mapminmax_reverse(y,settings)
x = bsxfun(@minus,y,settings.ymin);
x = bsxfun(@rdivide,x,settings.gain);
x = bsxfun(@plus,x,settings.xoffset);
end
